digraph Tree {
node [shape=box, style="filled", color="black"] ;
0 [label="rata-rata interval donor <= 12.036\ngini = 0.451\nsamples = 300\nvalue = [197, 103]\nclass = Aktif", fillcolor="#f3c3a1"] ;
1 [label="gini = 0.0\nsamples = 103\nvalue = [0, 103]\nclass = non Aktif", fillcolor="#399de5"] ;
0 -> 1 [labeldistance=2.5, labelangle=45, headlabel="True"] ;
2 [label="gini = 0.0\nsamples = 197\nvalue = [197, 0]\nclass = Aktif", fillcolor="#e58139"] ;
0 -> 2 [labeldistance=2.5, labelangle=-45, headlabel="False"] ;
}
